<?xml version="1.0"?>
<opencv_storage>
<opencv_ml_svm>
  <format>3</format>
  <svmType>C_SVC</svmType>
  <kernel>
    <type>POLY</type>
    <degree>1.</degree>
    <gamma>1.</gamma>
    <coef0>0.</coef0></kernel>
  <C>1.</C>
  <term_criteria><iterations>100</iterations></term_criteria>
  <var_count>2</var_count>
  <class_count>2</class_count>
  <class_labels type_id="opencv-matrix">
    <rows>2</rows>
    <cols>1</cols>
    <dt>i</dt>
    <data>
      -1 1</data></class_labels>
  <sv_total>3</sv_total>
  <support_vectors>
    <_>
      501. 300.</_>
    <_>
      501. 255.</_>
    <_>
      10. 501.</_></support_vectors>
  <decision_functions>
    <_>
      <sv_count>3</sv_count>
      <rho>-2.3489341479972193e+01</rho>
      <alpha>
        1.1902233975865900e-03 4.5351285805737672e-05
        -1.2355746833923275e-03</alpha>
      <index>
        1 2 0</index></_></decision_functions></opencv_ml_svm>
</opencv_storage>
